digraph Tree {
node [shape=box] ;
0 [label="floorarea <= 257.0\nmse = 120105196524433.64\nsamples = 268\nvalue = 11443054.384"] ;
1 [label="floorarea <= 109.0\nmse = 17495895105781.422\nsamples = 205\nvalue = 6991737.39"] ;
0 -> 1 [labeldistance=2.5, labelangle=45, headlabel="True"] ;
2 [label="floorarea <= 67.5\nmse = 5963990351123.824\nsamples = 99\nvalue = 4517348.515"] ;
1 -> 2 ;
3 [label="bathrooms <= 2.5\nmse = 3836330803082.76\nsamples = 40\nvalue = 2863712.875"] ;
2 -> 3 ;
4 [label="(...)"] ;
3 -> 4 ;
5 [label="(...)"] ;
3 -> 5 ;
6 [label="bathrooms <= 2.5\nmse = 4295680568037.028\nsamples = 59\nvalue = 5638457.424"] ;
2 -> 6 ;
7 [label="(...)"] ;
6 -> 7 ;
8 [label="(...)"] ;
6 -> 8 ;
9 [label="floorarea <= 242.5\nmse = 17207325801912.531\nsamples = 106\nvalue = 9302723.226"] ;
1 -> 9 ;
10 [label="landsize <= 104.5\nmse = 13077059717194.11\nsamples = 98\nvalue = 8919272.061"] ;
9 -> 10 ;
11 [label="(...)"] ;
10 -> 11 ;
12 [label="(...)"] ;
10 -> 12 ;
13 [label="waterfront <= 0.5\nmse = 43937500000000.0\nsamples = 8\nvalue = 14000000.0"] ;
9 -> 13 ;
14 [label="(...)"] ;
13 -> 14 ;
15 [label="(...)"] ;
13 -> 15 ;
16 [label="landsize <= 320.5\nmse = 179718629933459.5\nsamples = 63\nvalue = 25927498.571"] ;
0 -> 16 [labeldistance=2.5, labelangle=-45, headlabel="False"] ;
17 [label="bathrooms <= 3.5\nmse = 32533517936261.0\nsamples = 30\nvalue = 17929747.0"] ;
16 -> 17 ;
18 [label="landsize <= 303.5\nmse = 42497510306972.84\nsamples = 9\nvalue = 13504712.222"] ;
17 -> 18 ;
19 [label="(...)"] ;
18 -> 19 ;
20 [label="(...)"] ;
18 -> 20 ;
21 [label="carspaces <= 1.466\nmse = 16274909297052.123\nsamples = 21\nvalue = 19826190.476"] ;
17 -> 21 ;
22 [label="(...)"] ;
21 -> 22 ;
23 [label="(...)"] ;
21 -> 23 ;
24 [label="bathrooms <= 2.5\nmse = 202511323966942.25\nsamples = 33\nvalue = 33198181.818"] ;
16 -> 24 ;
25 [label="waterfront <= 0.5\nmse = 10240000000000.0\nsamples = 2\nvalue = 8700000.0"] ;
24 -> 25 ;
26 [label="(...)"] ;
25 -> 26 ;
27 [label="(...)"] ;
25 -> 27 ;
28 [label="carspaces <= 1.966\nmse = 173697798335067.5\nsamples = 31\nvalue = 34778709.677"] ;
24 -> 28 ;
29 [label="(...)"] ;
28 -> 29 ;
30 [label="(...)"] ;
28 -> 30 ;
}