digraph Tree {
node [shape=box] ;
0 [label="floorarea <= 303.0\ngini = 0.991\nsamples = 319\nvalue = [1, 1, 1, 1, 1, 1, 1, 2, 1, 1, 1, 1, 1, 1\n1, 1, 1, 1, 1, 1, 1, 1, 1, 1, 2, 2, 1, 1\n2, 1, 1, 1, 1, 1, 1, 4, 1, 1, 1, 1, 1, 1\n5, 1, 2, 1, 1, 1, 1, 3, 1, 1, 1, 1, 5, 1\n1, 1, 1, 1, 1, 2, 1, 1, 1, 2, 1, 1, 1, 1\n3, 1, 2, 1, 2, 1, 1, 1, 1, 1, 1, 4, 1, 1\n1, 2, 1, 1, 1, 1, 4, 1, 1, 1, 1, 1, 3, 1\n1, 1, 1, 1, 4, 1, 3, 1, 1, 1, 3, 1, 1, 1\n1, 6, 2, 1, 1, 1, 4, 4, 7, 1, 1, 1, 1, 3\n1, 3, 5, 1, 1, 1, 1, 1, 3, 1, 5, 2, 2, 2\n1, 5, 1, 2, 5, 1, 1, 1, 1, 5, 3, 1, 7, 1\n1, 2, 1, 2, 1, 7, 1, 1, 1, 2, 1, 3, 2, 2\n1, 1, 6, 1, 1, 2, 1, 3, 1, 3, 1, 5, 2, 2\n2, 1, 2, 3, 1, 2, 1]"] ;
1 [label="floorarea <= 242.5\ngini = 0.991\nsamples = 261\nvalue = [1, 1, 1, 1, 1, 1, 1, 2, 1, 1, 1, 1, 1, 1\n1, 1, 1, 1, 1, 1, 1, 1, 1, 1, 2, 2, 1, 1\n2, 1, 1, 1, 1, 1, 1, 4, 1, 1, 1, 1, 1, 1\n5, 1, 2, 1, 1, 1, 1, 3, 1, 1, 1, 1, 5, 1\n1, 1, 1, 1, 1, 2, 1, 1, 1, 2, 1, 1, 1, 1\n3, 1, 2, 1, 2, 1, 1, 1, 1, 1, 1, 3, 1, 1\n1, 2, 1, 1, 1, 1, 4, 1, 1, 1, 1, 1, 3, 1\n1, 1, 1, 1, 3, 1, 3, 1, 1, 1, 3, 1, 1, 1\n1, 6, 2, 1, 1, 1, 4, 4, 7, 1, 1, 1, 1, 3\n1, 3, 5, 1, 1, 1, 1, 1, 3, 1, 4, 2, 2, 2\n0, 3, 1, 2, 5, 1, 1, 1, 0, 5, 2, 1, 7, 0\n0, 2, 1, 2, 0, 3, 0, 0, 0, 0, 1, 0, 2, 1\n0, 0, 0, 1, 1, 0, 1, 1, 1, 0, 1, 0, 0, 1\n0, 0, 0, 0, 0, 0, 1]"] ;
0 -> 1 [labeldistance=2.5, labelangle=45, headlabel="True"] ;
2 [label="location <= 3.5\ngini = 0.99\nsamples = 236\nvalue = [1, 1, 1, 1, 1, 1, 1, 2, 1, 1, 1, 1, 1, 1\n1, 1, 1, 1, 1, 1, 1, 1, 1, 1, 2, 2, 1, 1\n2, 1, 1, 1, 1, 1, 1, 4, 1, 1, 1, 1, 1, 1\n4, 1, 2, 1, 1, 1, 1, 3, 1, 1, 1, 1, 5, 1\n1, 1, 1, 1, 1, 2, 1, 1, 1, 2, 1, 1, 1, 1\n3, 1, 2, 1, 2, 1, 1, 1, 1, 1, 1, 3, 1, 1\n1, 2, 1, 1, 1, 1, 4, 1, 1, 1, 1, 1, 3, 1\n1, 1, 1, 1, 3, 1, 3, 1, 1, 1, 3, 1, 1, 1\n1, 5, 2, 1, 1, 1, 4, 4, 7, 1, 1, 1, 1, 3\n1, 3, 4, 1, 1, 1, 1, 1, 3, 1, 4, 2, 2, 2\n0, 3, 1, 2, 5, 1, 1, 1, 0, 0, 1, 1, 3, 0\n0, 2, 0, 2, 0, 3, 0, 0, 0, 0, 0, 0, 0, 0\n0, 0, 0, 1, 0, 0, 0, 0, 0, 0, 0, 0, 0, 0\n0, 0, 0, 0, 0, 0, 0]"] ;
1 -> 2 ;
3 [label="landsize <= 232.5\ngini = 0.75\nsamples = 8\nvalue = [0, 0, 0, 0, 0, 0, 0, 0, 0, 0, 0, 0, 0, 0\n0, 0, 0, 0, 0, 0, 0, 0, 0, 0, 0, 0, 0, 0\n0, 0, 0, 0, 0, 0, 0, 2, 0, 0, 0, 0, 0, 0\n0, 0, 1, 0, 0, 0, 0, 1, 0, 0, 0, 0, 0, 0\n0, 0, 0, 0, 0, 0, 0, 0, 0, 0, 0, 1, 0, 0\n0, 0, 0, 0, 0, 0, 0, 0, 0, 0, 0, 0, 0, 0\n0, 0, 0, 0, 0, 0, 0, 0, 0, 0, 0, 0, 0, 0\n0, 0, 0, 0, 0, 0, 3, 0, 0, 0, 0, 0, 0, 0\n0, 0, 0, 0, 0, 0, 0, 0, 0, 0, 0, 0, 0, 0\n0, 0, 0, 0, 0, 0, 0, 0, 0, 0, 0, 0, 0, 0\n0, 0, 0, 0, 0, 0, 0, 0, 0, 0, 0, 0, 0, 0\n0, 0, 0, 0, 0, 0, 0, 0, 0, 0, 0, 0, 0, 0\n0, 0, 0, 0, 0, 0, 0, 0, 0, 0, 0, 0, 0, 0\n0, 0, 0, 0, 0, 0, 0]"] ;
2 -> 3 ;
4 [label="carspaces <= 1.496\ngini = 0.72\nsamples = 5\nvalue = [0, 0, 0, 0, 0, 0, 0, 0, 0, 0, 0, 0, 0, 0\n0, 0, 0, 0, 0, 0, 0, 0, 0, 0, 0, 0, 0, 0\n0, 0, 0, 0, 0, 0, 0, 2, 0, 0, 0, 0, 0, 0\n0, 0, 1, 0, 0, 0, 0, 1, 0, 0, 0, 0, 0, 0\n0, 0, 0, 0, 0, 0, 0, 0, 0, 0, 0, 1, 0, 0\n0, 0, 0, 0, 0, 0, 0, 0, 0, 0, 0, 0, 0, 0\n0, 0, 0, 0, 0, 0, 0, 0, 0, 0, 0, 0, 0, 0\n0, 0, 0, 0, 0, 0, 0, 0, 0, 0, 0, 0, 0, 0\n0, 0, 0, 0, 0, 0, 0, 0, 0, 0, 0, 0, 0, 0\n0, 0, 0, 0, 0, 0, 0, 0, 0, 0, 0, 0, 0, 0\n0, 0, 0, 0, 0, 0, 0, 0, 0, 0, 0, 0, 0, 0\n0, 0, 0, 0, 0, 0, 0, 0, 0, 0, 0, 0, 0, 0\n0, 0, 0, 0, 0, 0, 0, 0, 0, 0, 0, 0, 0, 0\n0, 0, 0, 0, 0, 0, 0]"] ;
3 -> 4 ;
5 [label="(...)"] ;
4 -> 5 ;
8 [label="(...)"] ;
4 -> 8 ;
11 [label="gini = 0.0\nsamples = 3\nvalue = [0, 0, 0, 0, 0, 0, 0, 0, 0, 0, 0, 0, 0, 0\n0, 0, 0, 0, 0, 0, 0, 0, 0, 0, 0, 0, 0, 0\n0, 0, 0, 0, 0, 0, 0, 0, 0, 0, 0, 0, 0, 0\n0, 0, 0, 0, 0, 0, 0, 0, 0, 0, 0, 0, 0, 0\n0, 0, 0, 0, 0, 0, 0, 0, 0, 0, 0, 0, 0, 0\n0, 0, 0, 0, 0, 0, 0, 0, 0, 0, 0, 0, 0, 0\n0, 0, 0, 0, 0, 0, 0, 0, 0, 0, 0, 0, 0, 0\n0, 0, 0, 0, 0, 0, 3, 0, 0, 0, 0, 0, 0, 0\n0, 0, 0, 0, 0, 0, 0, 0, 0, 0, 0, 0, 0, 0\n0, 0, 0, 0, 0, 0, 0, 0, 0, 0, 0, 0, 0, 0\n0, 0, 0, 0, 0, 0, 0, 0, 0, 0, 0, 0, 0, 0\n0, 0, 0, 0, 0, 0, 0, 0, 0, 0, 0, 0, 0, 0\n0, 0, 0, 0, 0, 0, 0, 0, 0, 0, 0, 0, 0, 0\n0, 0, 0, 0, 0, 0, 0]"] ;
3 -> 11 ;
12 [label="landsize <= 142.5\ngini = 0.99\nsamples = 228\nvalue = [1, 1, 1, 1, 1, 1, 1, 2, 1, 1, 1, 1, 1, 1\n1, 1, 1, 1, 1, 1, 1, 1, 1, 1, 2, 2, 1, 1\n2, 1, 1, 1, 1, 1, 1, 2, 1, 1, 1, 1, 1, 1\n4, 1, 1, 1, 1, 1, 1, 2, 1, 1, 1, 1, 5, 1\n1, 1, 1, 1, 1, 2, 1, 1, 1, 2, 1, 0, 1, 1\n3, 1, 2, 1, 2, 1, 1, 1, 1, 1, 1, 3, 1, 1\n1, 2, 1, 1, 1, 1, 4, 1, 1, 1, 1, 1, 3, 1\n1, 1, 1, 1, 3, 1, 0, 1, 1, 1, 3, 1, 1, 1\n1, 5, 2, 1, 1, 1, 4, 4, 7, 1, 1, 1, 1, 3\n1, 3, 4, 1, 1, 1, 1, 1, 3, 1, 4, 2, 2, 2\n0, 3, 1, 2, 5, 1, 1, 1, 0, 0, 1, 1, 3, 0\n0, 2, 0, 2, 0, 3, 0, 0, 0, 0, 0, 0, 0, 0\n0, 0, 0, 1, 0, 0, 0, 0, 0, 0, 0, 0, 0, 0\n0, 0, 0, 0, 0, 0, 0]"] ;
2 -> 12 ;
13 [label="floorarea <= 175.0\ngini = 0.989\nsamples = 144\nvalue = [1, 0, 1, 1, 1, 1, 0, 1, 1, 1, 1, 1, 1, 1\n1, 1, 1, 1, 1, 1, 1, 1, 1, 1, 2, 2, 1, 1\n2, 1, 1, 1, 0, 1, 1, 0, 1, 1, 1, 1, 1, 1\n4, 1, 1, 1, 1, 1, 1, 1, 1, 0, 1, 1, 3, 1\n1, 1, 1, 1, 1, 1, 1, 1, 1, 0, 1, 0, 1, 1\n1, 1, 1, 1, 2, 1, 1, 1, 1, 1, 1, 3, 1, 1\n1, 0, 1, 1, 0, 0, 4, 1, 1, 1, 1, 1, 2, 1\n0, 1, 1, 0, 2, 0, 0, 1, 1, 1, 2, 1, 1, 1\n0, 0, 2, 0, 1, 0, 1, 3, 0, 0, 0, 1, 0, 3\n0, 3, 1, 0, 0, 0, 1, 1, 1, 0, 4, 0, 0, 0\n0, 1, 0, 1, 0, 1, 1, 0, 0, 0, 0, 0, 0, 0\n0, 2, 0, 0, 0, 1, 0, 0, 0, 0, 0, 0, 0, 0\n0, 0, 0, 0, 0, 0, 0, 0, 0, 0, 0, 0, 0, 0\n0, 0, 0, 0, 0, 0, 0]"] ;
12 -> 13 ;
14 [label="(...)"] ;
13 -> 14 ;
261 [label="(...)"] ;
13 -> 261 ;
276 [label="floorarea <= 172.0\ngini = 0.971\nsamples = 84\nvalue = [0, 1, 0, 0, 0, 0, 1, 1, 0, 0, 0, 0, 0, 0\n0, 0, 0, 0, 0, 0, 0, 0, 0, 0, 0, 0, 0, 0\n0, 0, 0, 0, 1, 0, 0, 2, 0, 0, 0, 0, 0, 0\n0, 0, 0, 0, 0, 0, 0, 1, 0, 1, 0, 0, 2, 0\n0, 0, 0, 0, 0, 1, 0, 0, 0, 2, 0, 0, 0, 0\n2, 0, 1, 0, 0, 0, 0, 0, 0, 0, 0, 0, 0, 0\n0, 2, 0, 0, 1, 1, 0, 0, 0, 0, 0, 0, 1, 0\n1, 0, 0, 1, 1, 1, 0, 0, 0, 0, 1, 0, 0, 0\n1, 5, 0, 1, 0, 1, 3, 1, 7, 1, 1, 0, 1, 0\n1, 0, 3, 1, 1, 1, 0, 0, 2, 1, 0, 2, 2, 2\n0, 2, 1, 1, 5, 0, 0, 1, 0, 0, 1, 1, 3, 0\n0, 0, 0, 2, 0, 2, 0, 0, 0, 0, 0, 0, 0, 0\n0, 0, 0, 1, 0, 0, 0, 0, 0, 0, 0, 0, 0, 0\n0, 0, 0, 0, 0, 0, 0]"] ;
12 -> 276 ;
277 [label="(...)"] ;
276 -> 277 ;
372 [label="(...)"] ;
276 -> 372 ;
415 [label="landsize <= 223.5\ngini = 0.906\nsamples = 25\nvalue = [0, 0, 0, 0, 0, 0, 0, 0, 0, 0, 0, 0, 0, 0\n0, 0, 0, 0, 0, 0, 0, 0, 0, 0, 0, 0, 0, 0\n0, 0, 0, 0, 0, 0, 0, 0, 0, 0, 0, 0, 0, 0\n1, 0, 0, 0, 0, 0, 0, 0, 0, 0, 0, 0, 0, 0\n0, 0, 0, 0, 0, 0, 0, 0, 0, 0, 0, 0, 0, 0\n0, 0, 0, 0, 0, 0, 0, 0, 0, 0, 0, 0, 0, 0\n0, 0, 0, 0, 0, 0, 0, 0, 0, 0, 0, 0, 0, 0\n0, 0, 0, 0, 0, 0, 0, 0, 0, 0, 0, 0, 0, 0\n0, 1, 0, 0, 0, 0, 0, 0, 0, 0, 0, 0, 0, 0\n0, 0, 1, 0, 0, 0, 0, 0, 0, 0, 0, 0, 0, 0\n0, 0, 0, 0, 0, 0, 0, 0, 0, 5, 1, 0, 4, 0\n0, 0, 1, 0, 0, 0, 0, 0, 0, 0, 1, 0, 2, 1\n0, 0, 0, 0, 1, 0, 1, 1, 1, 0, 1, 0, 0, 1\n0, 0, 0, 0, 0, 0, 1]"] ;
1 -> 415 ;
416 [label="landsize <= 160.0\ngini = 0.688\nsamples = 8\nvalue = [0, 0, 0, 0, 0, 0, 0, 0, 0, 0, 0, 0, 0, 0\n0, 0, 0, 0, 0, 0, 0, 0, 0, 0, 0, 0, 0, 0\n0, 0, 0, 0, 0, 0, 0, 0, 0, 0, 0, 0, 0, 0\n0, 0, 0, 0, 0, 0, 0, 0, 0, 0, 0, 0, 0, 0\n0, 0, 0, 0, 0, 0, 0, 0, 0, 0, 0, 0, 0, 0\n0, 0, 0, 0, 0, 0, 0, 0, 0, 0, 0, 0, 0, 0\n0, 0, 0, 0, 0, 0, 0, 0, 0, 0, 0, 0, 0, 0\n0, 0, 0, 0, 0, 0, 0, 0, 0, 0, 0, 0, 0, 0\n0, 0, 0, 0, 0, 0, 0, 0, 0, 0, 0, 0, 0, 0\n0, 0, 1, 0, 0, 0, 0, 0, 0, 0, 0, 0, 0, 0\n0, 0, 0, 0, 0, 0, 0, 0, 0, 4, 1, 0, 0, 0\n0, 0, 1, 0, 0, 0, 0, 0, 0, 0, 0, 0, 0, 1\n0, 0, 0, 0, 0, 0, 0, 0, 0, 0, 0, 0, 0, 0\n0, 0, 0, 0, 0, 0, 0]"] ;
415 -> 416 ;
417 [label="gini = 0.0\nsamples = 1\nvalue = [0, 0, 0, 0, 0, 0, 0, 0, 0, 0, 0, 0, 0, 0\n0, 0, 0, 0, 0, 0, 0, 0, 0, 0, 0, 0, 0, 0\n0, 0, 0, 0, 0, 0, 0, 0, 0, 0, 0, 0, 0, 0\n0, 0, 0, 0, 0, 0, 0, 0, 0, 0, 0, 0, 0, 0\n0, 0, 0, 0, 0, 0, 0, 0, 0, 0, 0, 0, 0, 0\n0, 0, 0, 0, 0, 0, 0, 0, 0, 0, 0, 0, 0, 0\n0, 0, 0, 0, 0, 0, 0, 0, 0, 0, 0, 0, 0, 0\n0, 0, 0, 0, 0, 0, 0, 0, 0, 0, 0, 0, 0, 0\n0, 0, 0, 0, 0, 0, 0, 0, 0, 0, 0, 0, 0, 0\n0, 0, 1, 0, 0, 0, 0, 0, 0, 0, 0, 0, 0, 0\n0, 0, 0, 0, 0, 0, 0, 0, 0, 0, 0, 0, 0, 0\n0, 0, 0, 0, 0, 0, 0, 0, 0, 0, 0, 0, 0, 0\n0, 0, 0, 0, 0, 0, 0, 0, 0, 0, 0, 0, 0, 0\n0, 0, 0, 0, 0, 0, 0]"] ;
416 -> 417 ;
418 [label="landsize <= 188.0\ngini = 0.612\nsamples = 7\nvalue = [0, 0, 0, 0, 0, 0, 0, 0, 0, 0, 0, 0, 0, 0\n0, 0, 0, 0, 0, 0, 0, 0, 0, 0, 0, 0, 0, 0\n0, 0, 0, 0, 0, 0, 0, 0, 0, 0, 0, 0, 0, 0\n0, 0, 0, 0, 0, 0, 0, 0, 0, 0, 0, 0, 0, 0\n0, 0, 0, 0, 0, 0, 0, 0, 0, 0, 0, 0, 0, 0\n0, 0, 0, 0, 0, 0, 0, 0, 0, 0, 0, 0, 0, 0\n0, 0, 0, 0, 0, 0, 0, 0, 0, 0, 0, 0, 0, 0\n0, 0, 0, 0, 0, 0, 0, 0, 0, 0, 0, 0, 0, 0\n0, 0, 0, 0, 0, 0, 0, 0, 0, 0, 0, 0, 0, 0\n0, 0, 0, 0, 0, 0, 0, 0, 0, 0, 0, 0, 0, 0\n0, 0, 0, 0, 0, 0, 0, 0, 0, 4, 1, 0, 0, 0\n0, 0, 1, 0, 0, 0, 0, 0, 0, 0, 0, 0, 0, 1\n0, 0, 0, 0, 0, 0, 0, 0, 0, 0, 0, 0, 0, 0\n0, 0, 0, 0, 0, 0, 0]"] ;
416 -> 418 ;
419 [label="(...)"] ;
418 -> 419 ;
420 [label="(...)"] ;
418 -> 420 ;
427 [label="landsize <= 268.5\ngini = 0.893\nsamples = 17\nvalue = [0, 0, 0, 0, 0, 0, 0, 0, 0, 0, 0, 0, 0, 0\n0, 0, 0, 0, 0, 0, 0, 0, 0, 0, 0, 0, 0, 0\n0, 0, 0, 0, 0, 0, 0, 0, 0, 0, 0, 0, 0, 0\n1, 0, 0, 0, 0, 0, 0, 0, 0, 0, 0, 0, 0, 0\n0, 0, 0, 0, 0, 0, 0, 0, 0, 0, 0, 0, 0, 0\n0, 0, 0, 0, 0, 0, 0, 0, 0, 0, 0, 0, 0, 0\n0, 0, 0, 0, 0, 0, 0, 0, 0, 0, 0, 0, 0, 0\n0, 0, 0, 0, 0, 0, 0, 0, 0, 0, 0, 0, 0, 0\n0, 1, 0, 0, 0, 0, 0, 0, 0, 0, 0, 0, 0, 0\n0, 0, 0, 0, 0, 0, 0, 0, 0, 0, 0, 0, 0, 0\n0, 0, 0, 0, 0, 0, 0, 0, 0, 1, 0, 0, 4, 0\n0, 0, 0, 0, 0, 0, 0, 0, 0, 0, 1, 0, 2, 0\n0, 0, 0, 0, 1, 0, 1, 1, 1, 0, 1, 0, 0, 1\n0, 0, 0, 0, 0, 0, 1]"] ;
415 -> 427 ;
428 [label="bedrooms <= 4.5\ngini = 0.375\nsamples = 4\nvalue = [0, 0, 0, 0, 0, 0, 0, 0, 0, 0, 0, 0, 0, 0\n0, 0, 0, 0, 0, 0, 0, 0, 0, 0, 0, 0, 0, 0\n0, 0, 0, 0, 0, 0, 0, 0, 0, 0, 0, 0, 0, 0\n0, 0, 0, 0, 0, 0, 0, 0, 0, 0, 0, 0, 0, 0\n0, 0, 0, 0, 0, 0, 0, 0, 0, 0, 0, 0, 0, 0\n0, 0, 0, 0, 0, 0, 0, 0, 0, 0, 0, 0, 0, 0\n0, 0, 0, 0, 0, 0, 0, 0, 0, 0, 0, 0, 0, 0\n0, 0, 0, 0, 0, 0, 0, 0, 0, 0, 0, 0, 0, 0\n0, 1, 0, 0, 0, 0, 0, 0, 0, 0, 0, 0, 0, 0\n0, 0, 0, 0, 0, 0, 0, 0, 0, 0, 0, 0, 0, 0\n0, 0, 0, 0, 0, 0, 0, 0, 0, 0, 0, 0, 3, 0\n0, 0, 0, 0, 0, 0, 0, 0, 0, 0, 0, 0, 0, 0\n0, 0, 0, 0, 0, 0, 0, 0, 0, 0, 0, 0, 0, 0\n0, 0, 0, 0, 0, 0, 0]"] ;
427 -> 428 ;
429 [label="(...)"] ;
428 -> 429 ;
430 [label="(...)"] ;
428 -> 430 ;
433 [label="landsize <= 303.5\ngini = 0.911\nsamples = 13\nvalue = [0, 0, 0, 0, 0, 0, 0, 0, 0, 0, 0, 0, 0, 0\n0, 0, 0, 0, 0, 0, 0, 0, 0, 0, 0, 0, 0, 0\n0, 0, 0, 0, 0, 0, 0, 0, 0, 0, 0, 0, 0, 0\n1, 0, 0, 0, 0, 0, 0, 0, 0, 0, 0, 0, 0, 0\n0, 0, 0, 0, 0, 0, 0, 0, 0, 0, 0, 0, 0, 0\n0, 0, 0, 0, 0, 0, 0, 0, 0, 0, 0, 0, 0, 0\n0, 0, 0, 0, 0, 0, 0, 0, 0, 0, 0, 0, 0, 0\n0, 0, 0, 0, 0, 0, 0, 0, 0, 0, 0, 0, 0, 0\n0, 0, 0, 0, 0, 0, 0, 0, 0, 0, 0, 0, 0, 0\n0, 0, 0, 0, 0, 0, 0, 0, 0, 0, 0, 0, 0, 0\n0, 0, 0, 0, 0, 0, 0, 0, 0, 1, 0, 0, 1, 0\n0, 0, 0, 0, 0, 0, 0, 0, 0, 0, 1, 0, 2, 0\n0, 0, 0, 0, 1, 0, 1, 1, 1, 0, 1, 0, 0, 1\n0, 0, 0, 0, 0, 0, 1]"] ;
427 -> 433 ;
434 [label="(...)"] ;
433 -> 434 ;
437 [label="(...)"] ;
433 -> 437 ;
456 [label="floorarea <= 835.0\ngini = 0.954\nsamples = 58\nvalue = [0, 0, 0, 0, 0, 0, 0, 0, 0, 0, 0, 0, 0, 0\n0, 0, 0, 0, 0, 0, 0, 0, 0, 0, 0, 0, 0, 0\n0, 0, 0, 0, 0, 0, 0, 0, 0, 0, 0, 0, 0, 0\n0, 0, 0, 0, 0, 0, 0, 0, 0, 0, 0, 0, 0, 0\n0, 0, 0, 0, 0, 0, 0, 0, 0, 0, 0, 0, 0, 0\n0, 0, 0, 0, 0, 0, 0, 0, 0, 0, 0, 1, 0, 0\n0, 0, 0, 0, 0, 0, 0, 0, 0, 0, 0, 0, 0, 0\n0, 0, 0, 0, 1, 0, 0, 0, 0, 0, 0, 0, 0, 0\n0, 0, 0, 0, 0, 0, 0, 0, 0, 0, 0, 0, 0, 0\n0, 0, 0, 0, 0, 0, 0, 0, 0, 0, 1, 0, 0, 0\n1, 2, 0, 0, 0, 0, 0, 0, 1, 0, 1, 0, 0, 1\n1, 0, 0, 0, 1, 4, 1, 1, 1, 2, 0, 3, 0, 1\n1, 1, 6, 0, 0, 2, 0, 2, 0, 3, 0, 5, 2, 1\n2, 1, 2, 3, 1, 2, 0]"] ;
0 -> 456 [labeldistance=2.5, labelangle=-45, headlabel="False"] ;
457 [label="floorarea <= 355.0\ngini = 0.952\nsamples = 56\nvalue = [0, 0, 0, 0, 0, 0, 0, 0, 0, 0, 0, 0, 0, 0\n0, 0, 0, 0, 0, 0, 0, 0, 0, 0, 0, 0, 0, 0\n0, 0, 0, 0, 0, 0, 0, 0, 0, 0, 0, 0, 0, 0\n0, 0, 0, 0, 0, 0, 0, 0, 0, 0, 0, 0, 0, 0\n0, 0, 0, 0, 0, 0, 0, 0, 0, 0, 0, 0, 0, 0\n0, 0, 0, 0, 0, 0, 0, 0, 0, 0, 0, 1, 0, 0\n0, 0, 0, 0, 0, 0, 0, 0, 0, 0, 0, 0, 0, 0\n0, 0, 0, 0, 1, 0, 0, 0, 0, 0, 0, 0, 0, 0\n0, 0, 0, 0, 0, 0, 0, 0, 0, 0, 0, 0, 0, 0\n0, 0, 0, 0, 0, 0, 0, 0, 0, 0, 1, 0, 0, 0\n1, 2, 0, 0, 0, 0, 0, 0, 1, 0, 1, 0, 0, 1\n1, 0, 0, 0, 1, 4, 1, 1, 1, 2, 0, 3, 0, 1\n1, 1, 6, 0, 0, 0, 0, 2, 0, 3, 0, 5, 2, 1\n2, 1, 2, 3, 1, 2, 0]"] ;
456 -> 457 ;
458 [label="bathrooms <= 4.5\ngini = 0.847\nsamples = 14\nvalue = [0, 0, 0, 0, 0, 0, 0, 0, 0, 0, 0, 0, 0, 0\n0, 0, 0, 0, 0, 0, 0, 0, 0, 0, 0, 0, 0, 0\n0, 0, 0, 0, 0, 0, 0, 0, 0, 0, 0, 0, 0, 0\n0, 0, 0, 0, 0, 0, 0, 0, 0, 0, 0, 0, 0, 0\n0, 0, 0, 0, 0, 0, 0, 0, 0, 0, 0, 0, 0, 0\n0, 0, 0, 0, 0, 0, 0, 0, 0, 0, 0, 0, 0, 0\n0, 0, 0, 0, 0, 0, 0, 0, 0, 0, 0, 0, 0, 0\n0, 0, 0, 0, 0, 0, 0, 0, 0, 0, 0, 0, 0, 0\n0, 0, 0, 0, 0, 0, 0, 0, 0, 0, 0, 0, 0, 0\n0, 0, 0, 0, 0, 0, 0, 0, 0, 0, 0, 0, 0, 0\n0, 0, 0, 0, 0, 0, 0, 0, 1, 0, 0, 0, 0, 1\n0, 0, 0, 0, 1, 4, 1, 0, 0, 0, 0, 0, 0, 1\n0, 1, 2, 0, 0, 0, 0, 0, 0, 0, 0, 0, 2, 0\n0, 0, 0, 0, 0, 0, 0]"] ;
457 -> 458 ;
459 [label="landsize <= 310.5\ngini = 0.571\nsamples = 7\nvalue = [0, 0, 0, 0, 0, 0, 0, 0, 0, 0, 0, 0, 0, 0\n0, 0, 0, 0, 0, 0, 0, 0, 0, 0, 0, 0, 0, 0\n0, 0, 0, 0, 0, 0, 0, 0, 0, 0, 0, 0, 0, 0\n0, 0, 0, 0, 0, 0, 0, 0, 0, 0, 0, 0, 0, 0\n0, 0, 0, 0, 0, 0, 0, 0, 0, 0, 0, 0, 0, 0\n0, 0, 0, 0, 0, 0, 0, 0, 0, 0, 0, 0, 0, 0\n0, 0, 0, 0, 0, 0, 0, 0, 0, 0, 0, 0, 0, 0\n0, 0, 0, 0, 0, 0, 0, 0, 0, 0, 0, 0, 0, 0\n0, 0, 0, 0, 0, 0, 0, 0, 0, 0, 0, 0, 0, 0\n0, 0, 0, 0, 0, 0, 0, 0, 0, 0, 0, 0, 0, 0\n0, 0, 0, 0, 0, 0, 0, 0, 0, 0, 0, 0, 0, 0\n0, 0, 0, 0, 0, 4, 1, 0, 0, 0, 0, 0, 0, 0\n0, 0, 0, 0, 0, 0, 0, 0, 0, 0, 0, 0, 2, 0\n0, 0, 0, 0, 0, 0, 0]"] ;
458 -> 459 ;
460 [label="(...)"] ;
459 -> 460 ;
461 [label="(...)"] ;
459 -> 461 ;
464 [label="landsize <= 222.25\ngini = 0.816\nsamples = 7\nvalue = [0, 0, 0, 0, 0, 0, 0, 0, 0, 0, 0, 0, 0, 0\n0, 0, 0, 0, 0, 0, 0, 0, 0, 0, 0, 0, 0, 0\n0, 0, 0, 0, 0, 0, 0, 0, 0, 0, 0, 0, 0, 0\n0, 0, 0, 0, 0, 0, 0, 0, 0, 0, 0, 0, 0, 0\n0, 0, 0, 0, 0, 0, 0, 0, 0, 0, 0, 0, 0, 0\n0, 0, 0, 0, 0, 0, 0, 0, 0, 0, 0, 0, 0, 0\n0, 0, 0, 0, 0, 0, 0, 0, 0, 0, 0, 0, 0, 0\n0, 0, 0, 0, 0, 0, 0, 0, 0, 0, 0, 0, 0, 0\n0, 0, 0, 0, 0, 0, 0, 0, 0, 0, 0, 0, 0, 0\n0, 0, 0, 0, 0, 0, 0, 0, 0, 0, 0, 0, 0, 0\n0, 0, 0, 0, 0, 0, 0, 0, 1, 0, 0, 0, 0, 1\n0, 0, 0, 0, 1, 0, 0, 0, 0, 0, 0, 0, 0, 1\n0, 1, 2, 0, 0, 0, 0, 0, 0, 0, 0, 0, 0, 0\n0, 0, 0, 0, 0, 0, 0]"] ;
458 -> 464 ;
465 [label="(...)"] ;
464 -> 465 ;
470 [label="(...)"] ;
464 -> 470 ;
471 [label="location <= 18.5\ngini = 0.941\nsamples = 42\nvalue = [0, 0, 0, 0, 0, 0, 0, 0, 0, 0, 0, 0, 0, 0\n0, 0, 0, 0, 0, 0, 0, 0, 0, 0, 0, 0, 0, 0\n0, 0, 0, 0, 0, 0, 0, 0, 0, 0, 0, 0, 0, 0\n0, 0, 0, 0, 0, 0, 0, 0, 0, 0, 0, 0, 0, 0\n0, 0, 0, 0, 0, 0, 0, 0, 0, 0, 0, 0, 0, 0\n0, 0, 0, 0, 0, 0, 0, 0, 0, 0, 0, 1, 0, 0\n0, 0, 0, 0, 0, 0, 0, 0, 0, 0, 0, 0, 0, 0\n0, 0, 0, 0, 1, 0, 0, 0, 0, 0, 0, 0, 0, 0\n0, 0, 0, 0, 0, 0, 0, 0, 0, 0, 0, 0, 0, 0\n0, 0, 0, 0, 0, 0, 0, 0, 0, 0, 1, 0, 0, 0\n1, 2, 0, 0, 0, 0, 0, 0, 0, 0, 1, 0, 0, 0\n1, 0, 0, 0, 0, 0, 0, 1, 1, 2, 0, 3, 0, 0\n1, 0, 4, 0, 0, 0, 0, 2, 0, 3, 0, 5, 0, 1\n2, 1, 2, 3, 1, 2, 0]"] ;
457 -> 471 ;
472 [label="landsize <= 434.5\ngini = 0.929\nsamples = 33\nvalue = [0, 0, 0, 0, 0, 0, 0, 0, 0, 0, 0, 0, 0, 0\n0, 0, 0, 0, 0, 0, 0, 0, 0, 0, 0, 0, 0, 0\n0, 0, 0, 0, 0, 0, 0, 0, 0, 0, 0, 0, 0, 0\n0, 0, 0, 0, 0, 0, 0, 0, 0, 0, 0, 0, 0, 0\n0, 0, 0, 0, 0, 0, 0, 0, 0, 0, 0, 0, 0, 0\n0, 0, 0, 0, 0, 0, 0, 0, 0, 0, 0, 1, 0, 0\n0, 0, 0, 0, 0, 0, 0, 0, 0, 0, 0, 0, 0, 0\n0, 0, 0, 0, 1, 0, 0, 0, 0, 0, 0, 0, 0, 0\n0, 0, 0, 0, 0, 0, 0, 0, 0, 0, 0, 0, 0, 0\n0, 0, 0, 0, 0, 0, 0, 0, 0, 0, 1, 0, 0, 0\n1, 0, 0, 0, 0, 0, 0, 0, 0, 0, 1, 0, 0, 0\n1, 0, 0, 0, 0, 0, 0, 1, 1, 1, 0, 3, 0, 0\n0, 0, 2, 0, 0, 0, 0, 0, 0, 3, 0, 5, 0, 1\n2, 1, 2, 3, 1, 1, 0]"] ;
471 -> 472 ;
473 [label="(...)"] ;
472 -> 473 ;
502 [label="(...)"] ;
472 -> 502 ;
523 [label="floorarea <= 405.0\ngini = 0.815\nsamples = 9\nvalue = [0, 0, 0, 0, 0, 0, 0, 0, 0, 0, 0, 0, 0, 0\n0, 0, 0, 0, 0, 0, 0, 0, 0, 0, 0, 0, 0, 0\n0, 0, 0, 0, 0, 0, 0, 0, 0, 0, 0, 0, 0, 0\n0, 0, 0, 0, 0, 0, 0, 0, 0, 0, 0, 0, 0, 0\n0, 0, 0, 0, 0, 0, 0, 0, 0, 0, 0, 0, 0, 0\n0, 0, 0, 0, 0, 0, 0, 0, 0, 0, 0, 0, 0, 0\n0, 0, 0, 0, 0, 0, 0, 0, 0, 0, 0, 0, 0, 0\n0, 0, 0, 0, 0, 0, 0, 0, 0, 0, 0, 0, 0, 0\n0, 0, 0, 0, 0, 0, 0, 0, 0, 0, 0, 0, 0, 0\n0, 0, 0, 0, 0, 0, 0, 0, 0, 0, 0, 0, 0, 0\n0, 2, 0, 0, 0, 0, 0, 0, 0, 0, 0, 0, 0, 0\n0, 0, 0, 0, 0, 0, 0, 0, 0, 1, 0, 0, 0, 0\n1, 0, 2, 0, 0, 0, 0, 2, 0, 0, 0, 0, 0, 0\n0, 0, 0, 0, 0, 1, 0]"] ;
471 -> 523 ;
524 [label="(...)"] ;
523 -> 524 ;
527 [label="(...)"] ;
523 -> 527 ;
534 [label="gini = 0.0\nsamples = 2\nvalue = [0, 0, 0, 0, 0, 0, 0, 0, 0, 0, 0, 0, 0, 0\n0, 0, 0, 0, 0, 0, 0, 0, 0, 0, 0, 0, 0, 0\n0, 0, 0, 0, 0, 0, 0, 0, 0, 0, 0, 0, 0, 0\n0, 0, 0, 0, 0, 0, 0, 0, 0, 0, 0, 0, 0, 0\n0, 0, 0, 0, 0, 0, 0, 0, 0, 0, 0, 0, 0, 0\n0, 0, 0, 0, 0, 0, 0, 0, 0, 0, 0, 0, 0, 0\n0, 0, 0, 0, 0, 0, 0, 0, 0, 0, 0, 0, 0, 0\n0, 0, 0, 0, 0, 0, 0, 0, 0, 0, 0, 0, 0, 0\n0, 0, 0, 0, 0, 0, 0, 0, 0, 0, 0, 0, 0, 0\n0, 0, 0, 0, 0, 0, 0, 0, 0, 0, 0, 0, 0, 0\n0, 0, 0, 0, 0, 0, 0, 0, 0, 0, 0, 0, 0, 0\n0, 0, 0, 0, 0, 0, 0, 0, 0, 0, 0, 0, 0, 0\n0, 0, 0, 0, 0, 2, 0, 0, 0, 0, 0, 0, 0, 0\n0, 0, 0, 0, 0, 0, 0]"] ;
456 -> 534 ;
}