digraph Tree {
node [shape=box] ;
0 [label="floorarea <= 257.0\nmse = 137963278992224.05\nsamples = 223\nvalue = 11494675.511"] ;
1 [label="floorarea <= 122.635\nmse = 14929117516890.906\nsamples = 172\nvalue = 6594724.645"] ;
0 -> 1 [labeldistance=2.5, labelangle=45, headlabel="True"] ;
2 [label="landsize <= 83.0\nmse = 4718054125769.309\nsamples = 105\nvalue = 4544111.419"] ;
1 -> 2 ;
3 [label="bathrooms <= 1.5\nmse = 1631767977134.648\nsamples = 46\nvalue = 3044636.783"] ;
2 -> 3 ;
4 [label="(...)"] ;
3 -> 4 ;
35 [label="(...)"] ;
3 -> 35 ;
92 [label="floorarea <= 82.0\nmse = 4004549900627.484\nsamples = 59\nvalue = 5713193.339"] ;
2 -> 92 ;
93 [label="(...)"] ;
92 -> 93 ;
128 [label="(...)"] ;
92 -> 128 ;
207 [label="landsize <= 102.0\nmse = 14014051179274.672\nsamples = 67\nvalue = 9808372.239"] ;
1 -> 207 ;
208 [label="carspaces <= 1.996\nmse = 3243592275960.086\nsamples = 10\nvalue = 6879799.9"] ;
207 -> 208 ;
209 [label="(...)"] ;
208 -> 209 ;
218 [label="(...)"] ;
208 -> 218 ;
227 [label="bathrooms <= 4.5\nmse = 14134975307518.531\nsamples = 57\nvalue = 10322156.86"] ;
207 -> 227 ;
228 [label="(...)"] ;
227 -> 228 ;
317 [label="(...)"] ;
227 -> 317 ;
320 [label="landsize <= 323.5\nmse = 198842392156862.38\nsamples = 51\nvalue = 28020000.0"] ;
0 -> 320 [labeldistance=2.5, labelangle=-45, headlabel="False"] ;
321 [label="bathrooms <= 3.5\nmse = 28600374149659.875\nsamples = 21\nvalue = 18621428.571"] ;
320 -> 321 ;
322 [label="location <= 11.0\nmse = 9040000000000.0\nsamples = 5\nvalue = 11100000.0"] ;
321 -> 322 ;
323 [label="(...)"] ;
322 -> 323 ;
328 [label="(...)"] ;
322 -> 328 ;
331 [label="carspaces <= 1.496\nmse = 11509677734375.0\nsamples = 16\nvalue = 20971875.0"] ;
321 -> 331 ;
332 [label="(...)"] ;
331 -> 332 ;
337 [label="(...)"] ;
331 -> 337 ;
356 [label="bathrooms <= 2.5\nmse = 212895362333333.25\nsamples = 30\nvalue = 34599000.0"] ;
320 -> 356 ;
357 [label="landsize <= 365.0\nmse = 9246666666666.672\nsamples = 3\nvalue = 9800000.0"] ;
356 -> 357 ;
358 [label="(...)"] ;
357 -> 358 ;
359 [label="(...)"] ;
357 -> 359 ;
362 [label="floorarea <= 802.5\nmse = 159598254320987.25\nsamples = 27\nvalue = 37354444.444"] ;
356 -> 362 ;
363 [label="(...)"] ;
362 -> 363 ;
402 [label="(...)"] ;
362 -> 402 ;
}